<?xml version="1.0"?>
<opencv_storage>
<cascade>
  <stageType>BOOST</stageType>
  <featureType>HAAR</featureType>
  <height>60</height>
  <width>30</width>
  <stageParams>
    <boostType>GAB</boostType>
    <minHitRate>9.9500000476837158e-01</minHitRate>
    <maxFalseAlarm>5.0000000000000000e-01</maxFalseAlarm>
    <weightTrimRate>9.4999999999999996e-01</weightTrimRate>
    <maxDepth>1</maxDepth>
    <maxWeakCount>100</maxWeakCount></stageParams>
  <featureParams>
    <maxCatCount>0</maxCatCount>
    <featSize>1</featSize>
    <mode>BASIC</mode></featureParams>
  <stageNum>6</stageNum>
  <stages>
    <!-- stage 0 -->
    <_>
      <maxWeakCount>2</maxWeakCount>
      <stageThreshold>-1.3426460325717926e-01</stageThreshold>
      <weakClassifiers>
        <_>
          <internalNodes>
            0 -1 1 5.6557010859251022e-02</internalNodes>
          <leafValues>
            -9.7671031951904297e-01 9.6226418018341064e-01</leafValues></_>
        <_>
          <internalNodes>
            0 -1 7 4.7752298414707184e-03</internalNodes>
          <leafValues>
            -1. 8.4244573116302490e-01</leafValues></_></weakClassifiers></_>
    <!-- stage 1 -->
    <_>
      <maxWeakCount>3</maxWeakCount>
      <stageThreshold>-6.4559179544448853e-01</stageThreshold>
      <weakClassifiers>
        <_>
          <internalNodes>
            0 -1 6 1.5410013496875763e-02</internalNodes>
          <leafValues>
            -8.1510013341903687e-01 8.0712425708770752e-01</leafValues></_>
        <_>
          <internalNodes>
            0 -1 10 -5.0820875912904739e-03</internalNodes>
          <leafValues>
            7.6783508062362671e-01 -6.7970681190490723e-01</leafValues></_>
        <_>
          <internalNodes>
            0 -1 0 3.5267407074570656e-03</internalNodes>
          <leafValues>
            -5.2874928712844849e-01 8.4921514987945557e-01</leafValues></_></weakClassifiers></_>
    <!-- stage 2 -->
    <_>
      <maxWeakCount>2</maxWeakCount>
      <stageThreshold>-2.3584353923797607e-01</stageThreshold>
      <weakClassifiers>
        <_>
          <internalNodes>
            0 -1 3 4.0152765810489655e-02</internalNodes>
          <leafValues>
            -8.9090907573699951e-01 6.4444446563720703e-01</leafValues></_>
        <_>
          <internalNodes>
            0 -1 5 -1.3259269762784243e-03</internalNodes>
          <leafValues>
            6.5506553649902344e-01 -7.4310803413391113e-01</leafValues></_></weakClassifiers></_>
    <!-- stage 3 -->
    <_>
      <maxWeakCount>2</maxWeakCount>
      <stageThreshold>-2.1236646175384521e-01</stageThreshold>
      <weakClassifiers>
        <_>
          <internalNodes>
            0 -1 8 4.6616501640528440e-04</internalNodes>
          <leafValues>
            -9.2197126150131226e-01 6.4661079645156860e-01</leafValues></_>
        <_>
          <internalNodes>
            0 -1 11 2.2041858173906803e-03</internalNodes>
          <leafValues>
            -6.3481593132019043e-01 7.0960479974746704e-01</leafValues></_></weakClassifiers></_>
    <!-- stage 4 -->
    <_>
      <maxWeakCount>3</maxWeakCount>
      <stageThreshold>-6.6272640228271484e-01</stageThreshold>
      <weakClassifiers>
        <_>
          <internalNodes>
            0 -1 2 -5.0194151699542999e-03</internalNodes>
          <leafValues>
            -9.7222220897674561e-01 5.9941518306732178e-01</leafValues></_>
        <_>
          <internalNodes>
            0 -1 9 -3.3518178388476372e-03</internalNodes>
          <leafValues>
            5.1089829206466675e-01 -7.7505689859390259e-01</leafValues></_>
        <_>
          <internalNodes>
            0 -1 12 -7.4710743501782417e-03</internalNodes>
          <leafValues>
            7.9511749744415283e-01 -4.8708468675613403e-01</leafValues></_></weakClassifiers></_>
    <!-- stage 5 -->
    <_>
      <maxWeakCount>1</maxWeakCount>
      <stageThreshold>6.4152354001998901e-01</stageThreshold>
      <weakClassifiers>
        <_>
          <internalNodes>
            0 -1 4 2.0780120976269245e-03</internalNodes>
          <leafValues>
            6.4152354001998901e-01 -9.9566161632537842e-01</leafValues></_></weakClassifiers></_></stages>
  <features>
    <_>
      <rects>
        <_>
          7 1 12 6 -1.</_>
        <_>
          7 1 6 3 2.</_>
        <_>
          13 4 6 3 2.</_></rects>
      <tilted>0</tilted></_>
    <_>
      <rects>
        <_>
          9 15 12 28 -1.</_>
        <_>
          15 15 6 28 2.</_></rects>
      <tilted>0</tilted></_>
    <_>
      <rects>
        <_>
          9 20 8 21 -1.</_>
        <_>
          9 27 8 7 3.</_></rects>
      <tilted>0</tilted></_>
    <_>
      <rects>
        <_>
          10 11 8 39 -1.</_>
        <_>
          14 11 4 39 2.</_></rects>
      <tilted>0</tilted></_>
    <_>
      <rects>
        <_>
          11 24 7 12 -1.</_>
        <_>
          11 28 7 4 3.</_></rects>
      <tilted>0</tilted></_>
    <_>
      <rects>
        <_>
          13 0 6 6 -1.</_>
        <_>
          13 2 6 2 3.</_></rects>
      <tilted>0</tilted></_>
    <_>
      <rects>
        <_>
          14 13 4 36 -1.</_>
        <_>
          16 13 2 36 2.</_></rects>
      <tilted>0</tilted></_>
    <_>
      <rects>
        <_>
          15 19 4 15 -1.</_>
        <_>
          17 19 2 15 2.</_></rects>
      <tilted>0</tilted></_>
    <_>
      <rects>
        <_>
          16 30 2 4 -1.</_>
        <_>
          17 30 1 4 2.</_></rects>
      <tilted>0</tilted></_>
    <_>
      <rects>
        <_>
          19 11 6 14 -1.</_>
        <_>
          19 11 3 7 2.</_>
        <_>
          22 18 3 7 2.</_></rects>
      <tilted>0</tilted></_>
    <_>
      <rects>
        <_>
          19 11 6 16 -1.</_>
        <_>
          19 11 3 8 2.</_>
        <_>
          22 19 3 8 2.</_></rects>
      <tilted>0</tilted></_>
    <_>
      <rects>
        <_>
          19 22 3 16 -1.</_>
        <_>
          20 22 1 16 3.</_></rects>
      <tilted>0</tilted></_>
    <_>
      <rects>
        <_>
          20 26 6 8 -1.</_>
        <_>
          22 26 2 8 3.</_></rects>
      <tilted>0</tilted></_></features></cascade>
</opencv_storage>
